digraph Tree {
node [shape=box, style="filled, rounded", color="black", fontname="helvetica"] ;
edge [fontname="helvetica"] ;
0 [label="petal length (cm) <= 2.45\ngini = 0.66\nsamples = 94\nvalue = [56, 47, 47]\nclass = setosa", fillcolor="#fdf4ee"] ;
1 [label="gini = 0.0\nsamples = 33\nvalue = [56, 0, 0]\nclass = setosa", fillcolor="#e58139"] ;
0 -> 1 [labeldistance=2.5, labelangle=45, headlabel="True"] ;
2 [label="petal width (cm) <= 1.75\ngini = 0.5\nsamples = 61\nvalue = [0, 47, 47]\nclass = versicolor", fillcolor="#ffffff"] ;
0 -> 2 [labeldistance=2.5, labelangle=-45, headlabel="False"] ;
3 [label="petal length (cm) <= 5.05\ngini = 0.11\nsamples = 30\nvalue = [0, 46, 3]\nclass = versicolor", fillcolor="#46e789"] ;
2 -> 3 ;
4 [label="gini = 0.0\nsamples = 28\nvalue = [0, 46, 0]\nclass = versicolor", fillcolor="#39e581"] ;
3 -> 4 ;
5 [label="gini = 0.0\nsamples = 2\nvalue = [0, 0, 3]\nclass = virginica", fillcolor="#8139e5"] ;
3 -> 5 ;
6 [label="sepal length (cm) <= 5.95\ngini = 0.04\nsamples = 31\nvalue = [0, 1, 44]\nclass = virginica", fillcolor="#843de6"] ;
2 -> 6 ;
7 [label="petal length (cm) <= 4.95\ngini = 0.28\nsamples = 5\nvalue = [0, 1, 5]\nclass = virginica", fillcolor="#9a61ea"] ;
6 -> 7 ;
8 [label="gini = 0.0\nsamples = 1\nvalue = [0, 1, 0]\nclass = versicolor", fillcolor="#39e581"] ;
7 -> 8 ;
9 [label="gini = 0.0\nsamples = 4\nvalue = [0, 0, 5]\nclass = virginica", fillcolor="#8139e5"] ;
7 -> 9 ;
10 [label="gini = 0.0\nsamples = 26\nvalue = [0, 0, 39]\nclass = virginica", fillcolor="#8139e5"] ;
6 -> 10 ;
}